{"learner":{"attributes":{"scikit_learn":"{\"_estimator_type\": \"classifier\"}"},"feature_names":["PC1","PC2","PC3","PC4","PC5","PC6","PC7","PC8","PC9","PC10","PC11","PC12","PC13","PC14","PC15","PC16","PC17","PC18","PC19","PC20","PC21","PC22","PC23","PC24","PC25","PC26","PC27","PC28","PC29","PC30","PC31","PC32","PC33","PC34","PC35","PC36","PC37","PC38","PC39","PC40","PC41","PC42","PC43","PC44","PC45","PC46","PC47","PC48","PC49","PC50","PC51","PC52","PC53","PC54","PC55","PC56","PC57","PC58","PC59","PC60","PC61","PC62","PC63","PC64","PC65","PC66","PC67","PC68","PC69","PC70","PC71","PC72","PC73","PC74","PC75","PC76","PC77","PC78","PC79","PC80","PC81","PC82","PC83","PC84","PC85"],"feature_types":["float","float","float","float","float","float","float","float","float","float","float","float","float","float","float","float","float","float","float","float","float","float","float","float","float","float","float","float","float","float","float","float","float","float","float","float","float","float","float","float","float","float","float","float","float","float","float","float","float","float","float","float","float","float","float","float","float","float","float","float","float","float","float","float","float","float","float","float","float","float","float","float","float","float","float","float","float","float","float","float","float","float","float","float","float"],"gradient_booster":{"model":{"gbtree_model_param":{"num_parallel_tree":"1","num_trees":"40"},"iteration_indptr":[0,1,2,3,4,5,6,7,8,9,10,11,12,13,14,15,16,17,18,19,20,21,22,23,24,25,26,27,28,29,30,31,32,33,34,35,36,37,38,39,40],"tree_info":[0,0,0,0,0,0,0,0,0,0,0,0,0,0,0,0,0,0,0,0,0,0,0,0,0,0,0,0,0,0,0,0,0,0,0,0,0,0,0,0],"trees":[{"base_weights":[9.796481E-2,-5.3718984E-1,5.6788707E-1,-1.5166914E0,1.2609948E-1,-2.7763373E-1,1.0555034E0,1.6815567E-1,-6.558843E-1,7.1983105E-1,-4.403812E-1,4.995254E-1,-1.0026606E0,-2.4050522E-1,1.2905399E0,1.0741193E0,-1.7884813E-1,-1.2714176E-1,3.3010554E-1,1.6815567E-1,-5.461117E-1,4.2529294E-1,5.248773E-2,-3.4695704E-2,3.9046013E-1],"categories":[],"categories_nodes":[],"categories_segments":[],"categories_sizes":[],"default_left":[0,0,0,0,0,0,0,0,0,0,0,0,0,0,0,0,0,0,0,0,0,0,0,0,0],"id":0,"left_children":[1,3,5,7,9,11,13,-1,-1,15,-1,17,19,-1,21,23,-1,-1,-1,-1,-1,-1,-1,-1,-1],"loss_changes":[1.2630853E1,1.1934211E1,1.0279317E1,1.1482523E1,1.2129992E1,5.938901E0,7.831167E0,0E0,0E0,4.9278097E0,0E0,3.4207594E0,7.8276606E0,0E0,1.7660656E0,2.2074585E0,0E0,0E0,0E0,0E0,0E0,0E0,0E0,0E0,0E0],"parents":[2147483647,0,0,1,1,2,2,3,3,4,4,5,5,6,6,9,9,11,11,12,12,14,14,15,15],"right_children":[2,4,6,8,10,12,14,-1,-1,16,-1,18,20,-1,22,24,-1,-1,-1,-1,-1,-1,-1,-1,-1],"split_conditions":[-4.8039798E8,1.5665134E8,-3.0568864E8,-7.106398E8,-3.1275963E9,1.5638403E8,-1.3228376E8,1.6815567E-1,-6.558843E-1,5.1811787E10,-4.403812E-1,-3.3340774E9,-9.2830904E7,-2.4050522E-1,5.1813474E10,9.43343E9,-1.7884813E-1,-1.2714176E-1,3.3010554E-1,1.6815567E-1,-5.461117E-1,4.2529294E-1,5.248773E-2,-3.4695704E-2,3.9046013E-1],"split_indices":[19,6,69,66,13,54,80,0,0,8,0,26,80,0,8,4,0,0,0,0,0,0,0,0,0],"split_type":[0,0,0,0,0,0,0,0,0,0,0,0,0,0,0,0,0,0,0,0,0,0,0,0,0],"sum_hessian":[4.029612E1,1.7074627E1,2.322149E1,6.374527E0,1.0700099E1,8.651144E0,1.4570348E1,1.5936317E0,4.780895E0,8.195821E0,2.5042784E0,4.325572E0,4.325572E0,1.3659701E0,1.3204378E1,6.602189E0,1.5936317E0,1.8212935E0,2.5042784E0,1.5936317E0,2.7319403E0,1.1610745E1,1.5936317E0,1.1383084E0,5.4638805E0],"tree_param":{"num_deleted":"0","num_feature":"85","num_nodes":"25","size_leaf_vector":"1"}},{"base_weights":[-1.7380634E-2,5.5637324E-1,-5.073915E-1,-8.1641555E-1,9.033972E-1,-1.0251493E0,3.0518764E-1,-3.5962743E-1,7.894387E-3,-1.3075104E-1,1.1374019E0,-1.2876229E0,1.7591342E-1,-2.7717283E-1,6.019591E-1,2.5824764E-1,-3.4638005E-1,4.0101013E-1,2.1214077E-1,4.301271E-2,-1.5340666E0,-1.2274332E-1,3.3988503E-1,-1.735059E-1,2.5141382E-1,-1.7572149E0,2.0733962E-3,2.8126252E-1,-3.216059E-1,-2.8241828E-1,-6.7306024E-1],"categories":[],"categories_nodes":[],"categories_segments":[],"categories_sizes":[],"default_left":[0,0,0,0,0,0,0,0,0,0,0,0,0,0,0,0,0,0,0,0,0,0,0,0,0,0,0,0,0,0,0],"id":1,"left_children":[1,3,5,7,9,11,13,-1,-1,15,17,19,-1,-1,21,-1,-1,-1,23,-1,25,27,-1,-1,-1,29,-1,-1,-1,-1,-1],"loss_changes":[1.1140216E1,9.439751E0,9.29661E0,1.3884406E0,3.792142E0,6.3689327E0,3.8686042E0,0E0,0E0,4.724905E0,1.9994736E0,4.355303E0,0E0,0E0,3.1869247E0,0E0,0E0,0E0,2.1584067E0,0E0,3.481367E0,5.2842474E0,0E0,0E0,0E0,1.3859329E0,0E0,0E0,0E0,0E0,0E0],"parents":[2147483647,0,0,1,1,2,2,3,3,4,4,5,5,6,6,9,9,10,10,11,11,14,14,18,18,20,20,21,21,25,25],"right_children":[2,4,6,8,10,12,14,-1,-1,16,18,20,-1,-1,22,-1,-1,-1,24,-1,26,28,-1,-1,-1,30,-1,-1,-1,-1,-1],"split_conditions":[-5.396697E7,-1.2049668E7,7.762917E8,1.1514063E9,-1.04057E9,3.5070298E9,1.1915018E11,-3.5962743E-1,7.894387E-3,4.4472976E8,3.682883E9,-2.1146678E11,1.7591342E-1,-2.7717283E-1,-3.8369728E8,2.5824764E-1,-3.4638005E-1,4.0101013E-1,-2.721395E6,4.301271E-2,2.172748E7,-4.1890352E8,3.3988503E-1,-1.735059E-1,2.5141382E-1,-6.769462E7,2.0733962E-3,2.8126252E-1,-3.216059E-1,-2.8241828E-1,-6.7306024E-1],"split_indices":[58,84,40,48,61,51,2,0,0,66,36,5,0,0,69,0,0,0,76,0,83,66,0,0,0,67,0,0,0,0,0],"split_type":[0,0,0,0,0,0,0,0,0,0,0,0,0,0,0,0,0,0,0,0,0,0,0,0,0,0,0,0,0,0,0],"sum_hessian":[3.7620255E1,1.7266949E1,2.0353306E1,3.2111948E0,1.4055754E1,1.2272156E1,8.081151E0,1.9183704E0,1.2928244E0,2.6750448E0,1.138071E1,1.0726152E1,1.5460038E0,1.1607271E0,6.9204235E0,1.4398279E0,1.235217E0,8.997913E0,2.3827963E0,1.6372905E0,9.088861E0,3.2515345E0,3.668889E0,1.086528E0,1.2962685E0,7.8166165E0,1.2722452E0,1.5417987E0,1.7097359E0,4.015763E0,3.8008537E0],"tree_param":{"num_deleted":"0","num_feature":"85","num_nodes":"31","size_leaf_vector":"1"}},{"base_weights":[1.2087873E-1,5.161543E-1,-3.1954956E-1,-9.080091E-1,7.80716E-1,-5.5076385E-1,2.8387436E-1,-3.9525735E-1,7.016217E-3,9.782779E-1,-1.2675676E-1,-7.459543E-1,2.6386222E-1,1.0989872E0,4.0864922E-2,-2.9276079E-2,-1.4041063E0,1.201694E0,2.3854243E-2,-4.0609998E-1,5.3705996E-1,-5.784032E-2,-4.9697414E-1,9.700859E-2,3.7882987E-1,3.2563823E-1,-1.3096364E-1],"categories":[],"categories_nodes":[],"categories_segments":[],"categories_sizes":[],"default_left":[0,0,0,0,0,0,0,0,0,0,0,0,0,0,0,0,0,0,0,0,0,0,0,0,0,0,0],"id":2,"left_children":[1,3,5,7,9,11,-1,-1,-1,13,-1,15,-1,17,-1,19,21,23,-1,-1,25,-1,-1,-1,-1,-1,-1],"loss_changes":[6.4982467E0,8.076757E0,5.7378764E0,1.3756454E0,4.461383E0,5.040263E0,0E0,0E0,0E0,1.3677473E0,0E0,6.731801E0,0E0,1.256813E0,0E0,6.6487746E0,1.9632263E0,2.1727943E-1,0E0,0E0,3.8088908E0,0E0,0E0,0E0,0E0,0E0,0E0],"parents":[2147483647,0,0,1,1,2,2,3,3,4,4,5,5,9,9,11,11,13,13,15,15,16,16,17,17,20,20],"right_children":[2,4,6,8,10,12,-1,-1,-1,14,-1,16,-1,18,-1,20,22,24,-1,-1,26,-1,-1,-1,-1,-1,-1],"split_conditions":[-4.7852356E5,-1.265904E10,3.6201236E9,9.624821E7,6.958643E9,4.0071684E10,2.8387436E-1,-3.9525735E-1,7.016217E-3,5.1813474E10,-1.2675676E-1,-3.6642666E8,2.6386222E-1,5.8777564E9,4.0864922E-2,-4.85697E10,-4.886207E8,-4.9333314E10,2.3854243E-2,-4.0609998E-1,-7.803075E8,-5.784032E-2,-4.9697414E-1,9.700859E-2,3.7882987E-1,3.2563823E-1,-1.3096364E-1],"split_indices":[82,29,51,76,35,13,0,0,0,8,0,42,0,14,0,7,63,9,0,0,35,0,0,0,0,0,0],"split_type":[0,0,0,0,0,0,0,0,0,0,0,0,0,0,0,0,0,0,0,0,0,0,0,0,0,0,0],"sum_hessian":[3.5379406E1,1.8554857E1,1.6824549E1,2.5258446E0,1.6029013E1,1.4703629E1,2.1209202E0,1.4664907E0,1.0593537E0,1.3928954E1,2.1000578E0,1.3359018E1,1.3446103E0,1.1915723E1,2.0132318E0,6.895173E0,6.463845E0,1.0662763E1,1.2529594E0,1.6489187E0,5.2462544E0,1.4190866E0,5.0447583E0,1.1024352E0,9.560328E0,3.2824612E0,1.9637933E0],"tree_param":{"num_deleted":"0","num_feature":"85","num_nodes":"27","size_leaf_vector":"1"}},{"base_weights":[5.1360164E-2,2.5424856E-1,-8.040307E-1,-9.199143E-1,3.8364854E-1,-4.028647E-1,-1.6990815E-1,-3.934061E-1,-7.3350826E-3,1.01022705E-1,8.186248E-1,1.731161E-1,-2.195919E-1,-9.2615837E-1,3.7192E-1,2.1907695E-1,3.4708455E-1,9.73486E-2,-4.533473E-1,6.295605E-1,-2.4741471E-1,-4.5199272E-1,2.731915E-1,-8.055489E-2,2.642693E-1,-3.0338672E-1,7.9713315E-2],"categories":[],"categories_nodes":[],"categories_segments":[],"categories_sizes":[],"default_left":[0,0,0,0,0,0,0,0,0,0,0,0,0,0,0,0,0,0,0,0,0,0,0,0,0,0,0],"id":3,"left_children":[1,3,5,7,9,-1,11,-1,-1,13,15,-1,-1,17,19,21,-1,-1,-1,23,-1,25,-1,-1,-1,-1,-1],"loss_changes":[6.658188E0,5.0352244E0,2.29E0,1.1433856E0,3.4165373E0,0E0,2.3244154E0,0E0,0E0,5.462866E0,1.9919314E0,0E0,0E0,3.5085192E0,5.2266874E0,2.8372974E0,0E0,0E0,0E0,3.2004828E0,0E0,1.6017933E0,0E0,0E0,0E0,0E0,0E0],"parents":[2147483647,0,0,1,1,2,2,3,3,4,4,6,6,9,9,10,10,13,13,14,14,15,15,19,19,21,21],"right_children":[2,4,6,8,10,-1,12,-1,-1,14,16,-1,-1,18,20,22,-1,-1,-1,24,-1,26,-1,-1,-1,-1,-1],"split_conditions":[1.2615269E10,-7.373241E10,-5.112086E7,-1.5106053E10,-4.0958968E9,-4.028647E-1,-2.549311E9,-3.934061E-1,-7.3350826E-3,-9.844547E8,1.7579526E8,1.731161E-1,-2.195919E-1,-9.9366854E8,-5.3646817E9,6.109313E6,3.4708455E-1,9.73486E-2,-4.533473E-1,-4.1469501E9,-2.4741471E-1,5.593289E8,2.731915E-1,-8.055489E-2,2.642693E-1,-3.0338672E-1,7.9713315E-2],"split_indices":[24,15,60,23,17,0,45,0,0,60,40,0,0,39,17,55,0,0,0,39,0,50,0,0,0,0,0],"split_type":[0,0,0,0,0,0,0,0,0,0,0,0,0,0,0,0,0,0,0,0,0,0,0,0,0,0,0],"sum_hessian":[3.6187016E1,2.9817446E1,6.369569E0,2.3534448E0,2.7464E1,2.8392165E0,3.530352E0,1.3144233E0,1.0390215E0,1.73943E1,1.0069699E1,1.5043988E0,2.0259535E0,3.125241E0,1.426906E1,4.2268248E0,5.8428745E0,1.137888E0,1.987353E0,1.2131081E1,2.1379797E0,2.321008E0,1.9058169E0,2.6377017E0,9.493379E0,1.0745583E0,1.2464498E0],"tree_param":{"num_deleted":"0","num_feature":"85","num_nodes":"27","size_leaf_vector":"1"}},{"base_weights":[-2.2509217E-2,1.783647E-1,-7.778971E-1,3.656554E-1,-7.2243637E-1,-1.2219782E0,5.5506546E-2,7.349172E-1,2.3585405E-2,-1.0617936E0,8.470539E-2,-5.993158E-2,-4.4923645E-1,2.22066E-1,-1.9544259E-1,-2.202296E-1,9.642136E-1,6.353514E-1,-2.6388258E-1,-3.8946673E-1,-8.521873E-2,-5.432113E-3,1.0834846E0,-3.784097E-2,2.714375E-1,-3.306378E-1,1.23347014E-1,3.4819007E-1,6.952638E-2,2.516556E-1,-1.823931E-1],"categories":[],"categories_nodes":[],"categories_segments":[],"categories_sizes":[],"default_left":[0,0,0,0,0,0,0,0,0,0,0,0,0,0,0,0,0,0,0,0,0,0,0,0,0,0,0,0,0,0,0],"id":4,"left_children":[1,3,5,7,9,11,13,15,17,19,-1,-1,-1,-1,-1,-1,21,23,25,-1,-1,-1,27,-1,-1,-1,29,-1,-1,-1,-1],"loss_changes":[5.4214797E0,5.0412474E0,2.8434916E0,3.0274792E0,2.0762675E0,1.0908413E0,2.2073207E0,4.6012673E0,2.5499883E0,3.8596678E-1,0E0,0E0,0E0,0E0,0E0,0E0,1.2416677E0,1.0628607E0,3.356711E0,0E0,0E0,0E0,3.432722E-1,0E0,0E0,0E0,4.5320816E0,0E0,0E0,0E0,0E0],"parents":[2147483647,0,0,1,1,2,2,3,3,4,4,5,5,6,6,7,7,8,8,9,9,16,16,17,17,18,18,22,22,26,26],"right_children":[2,4,6,8,10,12,14,16,18,20,-1,-1,-1,-1,-1,-1,22,24,26,-1,-1,-1,28,-1,-1,-1,30,-1,-1,-1,-1],"split_conditions":[6.998224E8,5.0475946E8,1.2928466E9,-9.00508E7,-5.7030865E10,-2.9359542E8,-1.041085E8,-1.0195081E9,-3.5208003E9,1.3315791E9,8.470539E-2,-5.993158E-2,-4.4923645E-1,2.22066E-1,-1.9544259E-1,-2.202296E-1,-1.5314526E7,-9.844547E8,-2.1581602E8,-3.8946673E-1,-8.521873E-2,-5.432113E-3,2.0286915E9,-3.784097E-2,2.714375E-1,-3.306378E-1,4.2288097E9,3.4819007E-1,6.952638E-2,2.516556E-1,-1.823931E-1],"split_indices":[68,74,34,72,5,75,62,60,24,34,0,0,0,0,0,0,84,60,74,0,0,0,43,0,0,0,16,0,0,0,0],"split_type":[0,0,0,0,0,0,0,0,0,0,0,0,0,0,0,0,0,0,0,0,0,0,0,0,0,0,0,0,0,0,0],"sum_hessian":[3.3814877E1,2.7315084E1,6.499792E0,2.3105225E1,4.2098613E0,3.936154E0,2.5636384E0,1.0558723E1,1.25465E1,3.1045842E0,1.1052773E0,1.2018088E0,2.734345E0,1.2784462E0,1.2851923E0,1.1283407E0,9.430383E0,3.6240108E0,8.922489E0,1.8675957E0,1.2369885E0,1.112877E0,8.317506E0,1.0861647E0,2.537846E0,2.2359984E0,6.6864915E0,7.2941327E0,1.0233731E0,3.3054795E0,3.3810117E0],"tree_param":{"num_deleted":"0","num_feature":"85","num_nodes":"31","size_leaf_vector":"1"}},{"base_weights":[9.209964E-2,1.995198E-1,-3.2209563E-1,3.0056596E-1,-3.124095E-1,7.835594E-1,2.752134E-2,-5.585681E-2,9.5612144E-1,4.8612854E-1,-3.0872E-1,9.612906E-2,3.0972034E-1,-3.170518E-1,7.8675777E-1,3.7788668E-1,-6.0881674E-1,1.1784162E-1,-2.5818488E-1,3.1105053E-1,6.541116E-3,2.4121146E-1,-8.3330676E-2,1.7286675E-1,-2.5960618E-1],"categories":[],"categories_nodes":[],"categories_segments":[],"categories_sizes":[],"default_left":[0,0,0,0,0,0,0,0,0,0,0,0,0,0,0,0,0,0,0,0,0,0,0,0,0],"id":5,"left_children":[1,3,-1,5,-1,7,9,-1,11,13,15,-1,-1,17,19,21,23,-1,-1,-1,-1,-1,-1,-1,-1],"loss_changes":[4.2256117E0,4.0964165E0,0E0,3.7604485E0,0E0,1.9051042E0,3.1350193E0,0E0,1.0194492E-1,2.3204458E0,2.6573637E0,0E0,0E0,1.5144316E0,1.226232E0,1.3968172E0,3.1071246E0,0E0,0E0,0E0,0E0,0E0,0E0,0E0,0E0],"parents":[2147483647,0,0,1,1,3,3,5,5,6,6,8,8,9,9,10,10,13,13,14,14,15,15,16,16],"right_children":[2,4,-1,6,-1,8,10,-1,12,14,16,-1,-1,18,20,22,24,-1,-1,-1,-1,-1,-1,-1,-1],"split_conditions":[1.8139132E10,1.9321129E9,-3.2209563E-1,-3.44743E9,-3.124095E-1,-2.039186E10,-2.2023392E8,-5.585681E-2,-1.5211477E12,-8.02632E8,-6.8819334E8,9.612906E-2,3.0972034E-1,3.9690848E8,8.5963994E8,1.0182474E9,-3.4841106E9,1.1784162E-1,-2.5818488E-1,3.1105053E-1,6.541116E-3,2.4121146E-1,-8.3330676E-2,1.7286675E-1,-2.5960618E-1],"split_indices":[30,1,0,24,0,19,57,0,0,61,62,0,0,66,54,31,54,0,0,0,0,0,0,0,0],"split_type":[0,0,0,0,0,0,0,0,0,0,0,0,0,0,0,0,0,0,0,0,0,0,0,0,0],"sum_hessian":[3.1033453E1,2.9174013E1,1.8594401E0,2.7677958E1,1.4960554E0,9.320698E0,1.835726E1,1.3960925E0,7.9246054E0,7.5770187E0,1.078024E1,1.406232E0,6.5183735E0,2.048769E0,5.5282497E0,3.1998723E0,7.580368E0,1.0087563E0,1.0400127E0,3.8983784E0,1.6298714E0,1.8021989E0,1.3976734E0,1.1272111E0,6.453157E0],"tree_param":{"num_deleted":"0","num_feature":"85","num_nodes":"25","size_leaf_vector":"1"}},{"base_weights":[-1.1560363E-1,1.276042E-1,-7.404337E-1,6.883081E-1,-1.3078095E-1,1.2289972E-1,-1.004284E0,-7.678627E-2,9.641114E-1,-5.924575E-1,4.0537167E-1,-1.1320967E-2,-3.698761E-1,8.276928E-2,3.178153E-1,3.7100464E-1,-1.0045198E0,7.399057E-1,-1.5988223E-1,-7.1564935E-2,2.198079E-1,-2.336594E-2,-3.9702407E-1,2.9456538E-1,-7.397573E-2],"categories":[],"categories_nodes":[],"categories_segments":[],"categories_sizes":[],"default_left":[0,0,0,0,0,0,0,0,0,0,0,0,0,0,0,0,0,0,0,0,0,0,0,0,0],"id":6,"left_children":[1,3,5,7,9,-1,11,-1,13,15,17,-1,-1,-1,-1,19,21,23,-1,-1,-1,-1,-1,-1,-1],"loss_changes":[4.5479145E0,3.2697835E0,2.9476805E0,2.0914614E0,4.1671424E0,0E0,1.5198488E0,0E0,8.0920696E-2,3.9182134E0,2.8848028E0,0E0,0E0,0E0,0E0,9.256159E-1,1.8250589E0,1.7382321E0,0E0,0E0,0E0,0E0,0E0,0E0,0E0],"parents":[2147483647,0,0,1,1,2,2,3,3,4,4,6,6,8,8,9,9,10,10,15,15,16,16,17,17],"right_children":[2,4,6,8,10,-1,12,-1,14,16,18,-1,-1,-1,-1,20,22,24,-1,-1,-1,-1,-1,-1,-1],"split_conditions":[7.130613E8,-1.6914885E8,-1.4631666E11,-2.8785366E8,-5.0157307E9,1.2289972E-1,-2.2204124E9,-7.678627E-2,-3.9812132E7,-9.123481E6,9.5790304E8,-1.1320967E-2,-3.698761E-1,8.276928E-2,3.178153E-1,-4.218572E8,-3.1091014E8,2.119644E10,-1.5988223E-1,-7.1564935E-2,2.198079E-1,-2.336594E-2,-3.9702407E-1,2.9456538E-1,-7.397573E-2],"split_indices":[13,72,8,78,17,0,52,0,81,84,58,0,0,0,0,65,47,10,0,0,0,0,0,0,0],"split_type":[0,0,0,0,0,0,0,0,0,0,0,0,0,0,0,0,0,0,0,0,0,0,0,0,0],"sum_hessian":[2.8305922E1,2.0947952E1,7.3579683E0,6.083242E0,1.486471E1,1.2699089E0,6.08806E0,1.3914227E0,4.691819E0,7.930665E0,6.9340453E0,1.3875054E0,4.7005544E0,1.044273E0,3.647546E0,2.405618E0,5.525047E0,5.267491E0,1.6665543E0,1.0226306E0,1.3829875E0,1.7331477E0,3.791899E0,4.233673E0,1.033818E0],"tree_param":{"num_deleted":"0","num_feature":"85","num_nodes":"25","size_leaf_vector":"1"}},{"base_weights":[-1.1017233E-1,2.5389776E-1,-3.9725173E-1,5.4358834E-1,-4.848954E-1,-9.216631E-1,-9.1274165E-2,9.517772E-1,-1.8478459E-1,-2.7981803E-1,7.79546E-2,-3.545254E-1,9.937416E-3,-5.391363E-1,5.643315E-1,7.9524405E-2,3.1006336E-1,1.4624037E-1,-6.146554E-1,7.4294336E-2,-8.533233E-1,-5.412332E-2,2.7558503E-1,-2.3385397E-1,-5.040243E-2,-1.2252976E-1,1.5659532E-1,-5.5798102E-2,-3.3402324E-1],"categories":[],"categories_nodes":[],"categories_segments":[],"categories_sizes":[],"default_left":[0,0,0,0,0,0,0,0,0,0,0,0,0,0,0,0,0,0,0,0,0,0,0,0,0,0,0,0,0],"id":7,"left_children":[1,3,5,7,9,11,13,15,17,-1,-1,-1,-1,19,21,-1,-1,-1,23,25,27,-1,-1,-1,-1,-1,-1,-1,-1],"loss_changes":[3.1130238E0,3.1135333E0,2.5640185E0,3.1599874E0,1.6695899E0,1.5219822E0,3.6903987E0,9.632015E-2,1.5833138E0,0E0,0E0,0E0,0E0,1.4825153E0,1.5296302E0,0E0,0E0,0E0,1.01114035E-1,9.509667E-1,6.5193915E-1,0E0,0E0,0E0,0E0,0E0,0E0,0E0,0E0],"parents":[2147483647,0,0,1,1,2,2,3,3,4,4,5,5,6,6,7,7,8,8,13,13,14,14,18,18,19,19,20,20],"right_children":[2,4,6,8,10,12,14,16,18,-1,-1,-1,-1,20,22,-1,-1,-1,24,26,28,-1,-1,-1,-1,-1,-1,-1,-1],"split_conditions":[-5.1861894E8,3.549193E9,1.1958496E9,9.984049E7,1.8099278E9,4.102948E8,2.3061002E10,-8.2131507E9,-1.4101702E9,-2.7981803E-1,7.79546E-2,-3.545254E-1,9.937416E-3,-1.758814E10,-2.0666024E10,7.9524405E-2,3.1006336E-1,1.4624037E-1,-9.386456E9,-6.7539317E10,-1.2795024E7,-5.412332E-2,2.7558503E-1,-2.3385397E-1,-5.040243E-2,-1.2252976E-1,1.5659532E-1,-5.5798102E-2,-3.3402324E-1],"split_indices":[33,30,33,77,48,45,7,33,40,0,0,0,0,6,18,0,0,0,19,1,82,0,0,0,0,0,0,0,0],"split_type":[0,0,0,0,0,0,0,0,0,0,0,0,0,0,0,0,0,0,0,0,0,0,0,0,0,0,0,0,0],"sum_hessian":[2.7819828E1,1.2316191E1,1.5503636E1,9.036917E0,3.2792735E0,4.9712605E0,1.0532376E1,5.594805E0,3.4421124E0,1.890226E0,1.3890476E0,3.7201622E0,1.2510984E0,6.363171E0,4.169205E0,1.046661E0,4.5481434E0,1.290297E0,2.1518154E0,2.4138374E0,3.9493337E0,1.5022023E0,2.6670027E0,1.0273612E0,1.1244541E0,1.2036632E0,1.2101743E0,1.5885551E0,2.3607786E0],"tree_param":{"num_deleted":"0","num_feature":"85","num_nodes":"29","size_leaf_vector":"1"}},{"base_weights":[-9.166865E-2,5.656551E-1,-2.5378275E-1,2.7827623E-1,-1.1573581E-1,-4.1549972E-1,6.224076E-1,6.379132E-2,-7.128307E-1,4.2576544E-2,2.3088439E-1,-3.5894954E-1,5.6546575E-1,-8.552573E-1,1.0932037E-1,1.13342956E-1,-2.571194E-1,-4.0208615E-2,2.5243908E-1,-3.423834E-1,-4.1465294E-1,1.9798495E-1,-1.227003E-1,-2.0924273E-1,1.1208305E-1],"categories":[],"categories_nodes":[],"categories_segments":[],"categories_sizes":[],"default_left":[0,0,0,0,0,0,0,0,0,0,0,0,0,0,0,0,0,0,0,0,0,0,0,0,0],"id":8,"left_children":[1,3,5,-1,-1,7,9,11,13,-1,-1,15,17,19,-1,21,-1,-1,-1,-1,23,-1,-1,-1,-1],"loss_changes":[2.881045E0,2.2146142E0,3.2763348E0,0E0,0E0,2.693084E0,1.5380025E-1,1.9061184E0,2.083416E0,0E0,0E0,1.2663484E0,8.967551E-1,8.497691E-1,0E0,1.2504679E0,0E0,0E0,0E0,0E0,1.5320148E0,0E0,0E0,0E0,0E0],"parents":[2147483647,0,0,1,1,2,2,5,5,6,6,7,7,8,8,11,11,12,12,13,13,15,15,20,20],"right_children":[2,4,6,-1,-1,8,10,12,14,-1,-1,16,18,20,-1,22,-1,-1,-1,-1,24,-1,-1,-1,-1],"split_conditions":[-5.129882E8,1.5832867E10,6.8901693E9,2.7827623E-1,-1.1573581E-1,-2.8322472E7,1.535538E8,5.8529894E9,1.9312388E9,4.2576544E-2,2.3088439E-1,6.3795576E7,-2.1121032E10,-2.0299427E8,1.0932037E-1,6.7099226E8,-2.571194E-1,-4.0208615E-2,2.5243908E-1,-3.423834E-1,1.5481415E11,1.9798495E-1,-1.227003E-1,-2.0924273E-1,1.1208305E-1],"split_indices":[66,18,31,0,0,55,51,18,57,0,0,82,11,68,0,37,0,0,0,0,2,0,0,0,0],"split_type":[0,0,0,0,0,0,0,0,0,0,0,0,0,0,0,0,0,0,0,0,0,0,0,0,0],"sum_hessian":[2.4689323E1,4.3919697E0,2.0297354E1,3.199817E0,1.1921527E0,1.7578676E1,2.7186775E0,7.0307364E0,1.0547939E1,1.0982076E0,1.6204698E0,3.9699316E0,3.0608048E0,9.498193E0,1.0497464E0,2.4342914E0,1.5356402E0,1.011535E0,2.04927E0,4.7951427E0,4.7030497E0,1.0607892E0,1.3735021E0,3.5459602E0,1.1570896E0],"tree_param":{"num_deleted":"0","num_feature":"85","num_nodes":"25","size_leaf_vector":"1"}},{"base_weights":[-1.2692186E-1,2.4213777E-1,-2.3173776E-1,-6.419014E-2,-7.567902E-1,4.2546558E-1,-3.1062242E-1,-2.9941493E-1,-2.2190562E-1,-3.2705306E-3,2.483111E-1,1.8820025E-1,-5.6709254E-1,-1.5931359E-1,5.753925E-2,-1.7807914E-1,1.458161E-1,4.6552125E-1,-1.4563589E-1,-8.748925E-1,7.6817498E-3,-3.0503515E-2,2.3211701E-1,-3.2109475E-1,-6.939129E-2,-2.3356357E-1,1.5168391E-1],"categories":[],"categories_nodes":[],"categories_segments":[],"categories_sizes":[],"default_left":[0,0,0,0,0,0,0,0,0,0,0,0,0,0,0,0,0,0,0,0,0,0,0,0,0,0,0],"id":9,"left_children":[1,-1,3,5,7,9,11,-1,13,15,-1,17,19,-1,-1,-1,-1,21,-1,23,25,-1,-1,-1,-1,-1,-1],"loss_changes":[2.7035136E0,0E0,2.052816E0,2.449129E0,5.122721E-1,1.1840764E0,1.814764E0,0E0,4.9235094E-1,1.5340933E0,0E0,1.2132007E0,1.6107547E0,0E0,0E0,0E0,0E0,8.222897E-1,0E0,4.9616623E-1,2.019613E0,0E0,0E0,0E0,0E0,0E0,0E0],"parents":[2147483647,0,0,2,2,3,3,4,4,5,5,6,6,8,8,9,9,11,11,12,12,17,17,19,19,20,20],"right_children":[2,-1,4,6,8,10,12,-1,14,16,-1,18,20,-1,-1,-1,-1,22,-1,24,26,-1,-1,-1,-1,-1,-1],"split_conditions":[-2.727869E10,2.4213777E-1,1.015591E9,-1.1891005E8,-9.4426035E8,3.225217E8,-6.5999866E8,-2.9941493E-1,-8.519003E8,2.7716628E9,2.483111E-1,-6.609701E11,2.243069E7,-1.5931359E-1,5.753925E-2,-1.7807914E-1,1.458161E-1,2.3878242E8,-1.4563589E-1,3.1674025E6,-7.5468717E8,-3.0503515E-2,2.3211701E-1,-3.2109475E-1,-6.939129E-2,-2.3356357E-1,1.5168391E-1],"split_indices":[22,0,63,77,38,25,36,0,23,15,0,0,81,0,0,0,0,41,0,84,56,0,0,0,0,0,0],"split_type":[0,0,0,0,0,0,0,0,0,0,0,0,0,0,0,0,0,0,0,0,0,0,0,0,0,0,0],"sum_hessian":[2.4703714E1,1.8164388E0,2.2887276E1,1.820136E1,4.6859164E0,5.8503456E0,1.2351014E1,2.6325772E0,2.0533392E0,3.3120155E0,2.53833E0,4.2843466E0,8.066668E0,1.0128492E0,1.04049E0,1.4045063E0,1.9075092E0,3.2538166E0,1.0305299E0,4.9133487E0,3.1533191E0,1.3814881E0,1.8723286E0,3.2603192E0,1.6530296E0,1.0041771E0,2.149142E0],"tree_param":{"num_deleted":"0","num_feature":"85","num_nodes":"27","size_leaf_vector":"1"}},{"base_weights":[-1.2610954E-2,-3.0775714E-1,2.5586945E-1,1.8246533E-1,-5.865373E-1,5.1402014E-1,-3.063387E-1,-1.3299634E-1,4.9680385E-1,-8.984841E-1,1.078732E-1,7.574917E-1,-5.249419E-2,8.887206E-2,-5.8622E-1,-8.269864E-3,2.1288392E-1,-6.641618E-2,-3.064487E-1,1.5109034E-1,-1.07867286E-1,2.6431376E-1,2.4025053E-2,-1.7800283E-1,1.8637355E-1,-4.7134463E-2,-2.2388938E-1],"categories":[],"categories_nodes":[],"categories_segments":[],"categories_sizes":[],"default_left":[0,0,0,0,0,0,0,0,0,0,0,0,0,0,0,0,0,0,0,0,0,0,0,0,0,0,0],"id":10,"left_children":[1,3,5,7,9,11,13,-1,15,17,19,21,23,-1,25,-1,-1,-1,-1,-1,-1,-1,-1,-1,-1,-1,-1],"loss_changes":[1.8399653E0,1.615969E0,1.9259076E0,1.157644E0,1.6730084E0,1.2430594E0,9.2599785E-1,0E0,4.261555E-1,2.0094347E-1,7.6346415E-1,4.455533E-1,1.6649324E0,0E0,1.15041256E-1,0E0,0E0,0E0,0E0,0E0,0E0,0E0,0E0,0E0,0E0,0E0,0E0],"parents":[2147483647,0,0,1,1,2,2,3,3,4,4,5,5,6,6,8,8,9,9,10,10,11,11,12,12,14,14],"right_children":[2,4,6,8,10,12,14,-1,16,18,20,22,24,-1,26,-1,-1,-1,-1,-1,-1,-1,-1,-1,-1,-1,-1],"split_conditions":[-4.8262845E8,-2.2703665E9,2.2049257E9,-2.7343242E8,2.6503178E8,2.8503299E9,-4.9733105E9,-1.3299634E-1,3.9893936E8,-2.138951E11,-8.466973E7,9.466459E9,1.3481939E10,8.887206E-2,1.8691989E8,-8.269864E-3,2.1288392E-1,-6.641618E-2,-3.064487E-1,1.5109034E-1,-1.07867286E-1,2.6431376E-1,2.4025053E-2,-1.7800283E-1,1.8637355E-1,-4.7134463E-2,-2.2388938E-1],"split_indices":[46,27,36,74,58,20,24,0,38,5,34,23,20,0,49,0,0,0,0,0,0,0,0,0,0,0,0],"split_type":[0,0,0,0,0,0,0,0,0,0,0,0,0,0,0,0,0,0,0,0,0,0,0,0,0,0,0],"sum_hessian":[2.1226126E1,1.0041262E1,1.1184864E1,3.765422E0,6.27584E0,7.7239485E0,3.4609153E0,1.1218027E0,2.6436195E0,4.1276946E0,2.1481454E0,5.166448E0,2.5575004E0,1.0791271E0,2.3817883E0,1.0144472E0,1.6291722E0,1.0650468E0,3.0626476E0,1.1213098E0,1.0268357E0,4.115246E0,1.0512023E0,1.4848535E0,1.0726469E0,1.1854792E0,1.196309E0],"tree_param":{"num_deleted":"0","num_feature":"85","num_nodes":"27","size_leaf_vector":"1"}},{"base_weights":[-8.477033E-2,-2.907626E-1,4.027739E-1,6.948002E-2,-7.2436225E-1,2.5489756E-1,-1.4290753E-1,3.763638E-1,-5.338889E-1,8.230297E-3,-2.943061E-1,-1.8532914E-1,1.23006396E-1,2.1606131E-1,-5.444973E-2,-2.5559065E-1,-8.7167206E-4,-4.9155805E-2,5.255161E-2,-1.7621402E-1,1.0789577E-1],"categories":[],"categories_nodes":[],"categories_segments":[],"categories_sizes":[],"default_left":[0,0,0,0,0,0,0,0,0,0,0,0,0,0,0,0,0,0,0,0,0],"id":11,"left_children":[1,3,5,7,9,-1,11,13,15,17,-1,-1,-1,-1,19,-1,-1,-1,-1,-1,-1],"loss_changes":[2.4617248E0,2.7045534E0,1.9145763E0,2.0884566E0,1.4744105E0,0E0,1.3473163E0,1.1270242E0,6.478064E-1,1.15316816E-1,0E0,0E0,0E0,0E0,1.1357675E0,0E0,0E0,0E0,0E0,0E0,0E0],"parents":[2147483647,0,0,1,1,2,2,3,3,4,4,6,6,7,7,8,8,9,9,14,14],"right_children":[2,4,6,8,10,-1,12,14,16,18,-1,-1,-1,-1,20,-1,-1,-1,-1,-1,-1],"split_conditions":[7.499683E8,4.8275027E8,2.9802886E8,3.778139E8,-6.5230085E9,2.5489756E-1,-1.3649792E8,-3.7466163E8,-8.1289395E8,-2.4284662E10,-2.943061E-1,-1.8532914E-1,1.23006396E-1,2.1606131E-1,1.0415868E7,-2.5559065E-1,-8.7167206E-4,-4.9155805E-2,5.255161E-2,-1.7621402E-1,1.0789577E-1],"split_indices":[56,55,63,58,30,0,61,56,43,14,0,0,0,0,62,0,0,0,0,0,0],"split_type":[0,0,0,0,0,0,0,0,0,0,0,0,0,0,0,0,0,0,0,0,0],"sum_hessian":[2.2345669E1,1.5992357E1,6.3533115E0,9.193767E0,6.7985907E0,3.1865962E0,3.1667154E0,6.3435545E0,2.8502116E0,2.0150008E0,4.78359E0,1.6405505E0,1.526165E0,3.1543095E0,3.1892452E0,1.4044058E0,1.4458058E0,1.0013334E0,1.0136673E0,1.2115697E0,1.9776757E0],"tree_param":{"num_deleted":"0","num_feature":"85","num_nodes":"21","size_leaf_vector":"1"}},{"base_weights":[-7.442983E-2,-7.120781E-1,5.4664697E-2,-2.862699E-1,-4.859871E-2,-1.7028947E-1,4.5149422E-1,1.649944E-1,-5.0496125E-1,5.5851873E-2,2.498031E-1,-1.9262773E-1,4.2905936E-1,5.808877E-2,-7.814738E-1,1.5614457E-1,-1.2875268E-1,2.2277352E-1,-4.746368E-2,-2.86563E-1,-1.7326744E-2],"categories":[],"categories_nodes":[],"categories_segments":[],"categories_sizes":[],"default_left":[0,0,0,0,0,0,0,0,0,0,0,0,0,0,0,0,0,0,0,0,0],"id":12,"left_children":[1,3,5,-1,-1,7,9,11,13,15,-1,-1,17,-1,19,-1,-1,-1,-1,-1,-1],"loss_changes":[1.8682005E0,3.5330474E-1,1.8095438E0,0E0,0E0,1.5547838E0,1.0538207E0,1.8322533E0,1.4666091E0,1.2717457E0,0E0,0E0,1.2412107E0,0E0,5.831604E-1,0E0,0E0,0E0,0E0,0E0,0E0],"parents":[2147483647,0,0,1,1,2,2,5,5,6,6,7,7,8,8,9,9,12,12,14,14],"right_children":[2,4,6,-1,-1,8,10,12,14,16,-1,-1,18,-1,20,-1,-1,-1,-1,-1,-1],"split_conditions":[-1.4142382E10,-3.4575744E9,5.2674972E7,-2.862699E-1,-4.859871E-2,-1.4124603E9,-2.0373902E8,-1.060508E9,-2.6933856E8,-4.6842112E8,2.498031E-1,-1.9262773E-1,4.232346E8,5.808877E-2,-3.8298862E6,1.5614457E-1,-1.2875268E-1,2.2277352E-1,-4.746368E-2,-2.86563E-1,-1.7326744E-2],"split_indices":[28,9,76,0,0,20,69,60,76,69,0,0,34,0,69,0,0,0,0,0,0],"split_type":[0,0,0,0,0,0,0,0,0,0,0,0,0,0,0,0,0,0,0,0,0],"sum_hessian":[2.122235E1,2.8128147E0,1.8409533E1,1.442913E0,1.3699018E0,1.2113516E1,6.2960176E0,6.3044906E0,5.809025E0,3.6520035E0,2.6440144E0,1.2012936E0,5.103197E0,1.7322805E0,4.0767446E0,1.8278881E0,1.8241153E0,3.1546245E0,1.9485728E0,3.0295937E0,1.0471506E0],"tree_param":{"num_deleted":"0","num_feature":"85","num_nodes":"21","size_leaf_vector":"1"}},{"base_weights":[-7.1009725E-2,2.351471E-1,-3.2857367E-1,-1.16078645E-1,3.7742788E-1,-4.4494116E-1,1.12023436E-1,5.7860386E-1,-4.3037012E-2,-8.080373E-3,-7.2817266E-1,2.3277326E-1,1.2235492E-1,-1.4824153E-1,1.4038078E-1,-1.9921608E-1,4.3028915E-1,2.7437971E-3,-2.857896E-1,-7.975499E-2,1.348907E-1,-1.6234476E-2,2.0652905E-1],"categories":[],"categories_nodes":[],"categories_segments":[],"categories_sizes":[],"default_left":[0,0,0,0,0,0,0,0,0,0,0,0,0,0,0,0,0,0,0,0,0,0,0],"id":13,"left_children":[1,3,5,-1,7,9,-1,11,13,15,17,-1,19,-1,-1,-1,21,-1,-1,-1,-1,-1,-1],"loss_changes":[1.8453432E0,1.1043684E0,1.1949676E0,0E0,8.131032E-1,1.3873317E0,0E0,4.786656E-1,1.1408566E0,1.8500633E0,1.1373842E0,0E0,5.14777E-1,0E0,0E0,0E0,5.2088666E-1,0E0,0E0,0E0,0E0,0E0,0E0],"parents":[2147483647,0,0,1,1,2,2,4,4,5,5,7,7,8,8,9,9,10,10,12,12,16,16],"right_children":[2,4,6,-1,8,10,-1,12,14,16,18,-1,20,-1,-1,-1,22,-1,-1,-1,-1,-1,-1],"split_conditions":[-5.1861894E8,-2.5719376E10,5.476355E8,-1.16078645E-1,5.0369823E9,-4.7852356E5,1.12023436E-1,1.792183E9,1.4715054E9,-1.0034469E10,-1.2841228E7,2.3277326E-1,1.5528128E11,-1.4824153E-1,1.4038078E-1,-1.9921608E-1,-7.220942E9,2.7437971E-3,-2.857896E-1,-7.975499E-2,1.348907E-1,-1.6234476E-2,2.0652905E-1],"split_indices":[33,11,73,0,20,82,0,30,26,10,83,0,2,0,0,0,21,0,0,0,0,0,0],"split_type":[0,0,0,0,0,0,0,0,0,0,0,0,0,0,0,0,0,0,0,0,0,0,0],"sum_hessian":[2.1421926E1,9.827441E0,1.1594485E1,1.5092534E0,8.318188E0,1.025988E1,1.3346046E0,5.3718586E0,2.9463296E0,4.4400325E0,5.819848E0,3.2609954E0,2.110863E0,1.5823402E0,1.3639892E0,1.572351E0,2.8676813E0,1.5821038E0,4.2377443E0,1.0514195E0,1.0594435E0,1.2716966E0,1.5959847E0],"tree_param":{"num_deleted":"0","num_feature":"85","num_nodes":"23","size_leaf_vector":"1"}},{"base_weights":[-1.3104924E-2,-2.1817143E-1,9.8270044E-2,1.9444643E-1,-1.996448E-1,9.5265815E-3,5.363766E-1,-2.6434767E-1,3.8167575E-1,2.4095125E-1,1.00704506E-1,1.9544238E-1,-5.381732E-1,-5.3729948E-2,6.4091617E-1,1.3976143E-1,-8.369818E-2,-4.2911157E-2,1.433966E-1,-2.1923718E-1,2.4747713E-2,2.2281606E-1,5.3128734E-2],"categories":[],"categories_nodes":[],"categories_segments":[],"categories_sizes":[],"default_left":[0,0,0,0,0,0,0,0,0,0,0,0,0,0,0,0,0,0,0,0,0,0,0],"id":14,"left_children":[1,-1,3,5,-1,7,9,11,13,-1,15,17,19,-1,21,-1,-1,-1,-1,-1,-1,-1,-1],"loss_changes":[1.6055418E0,0E0,1.4197409E0,1.0303156E0,0E0,1.2878798E0,5.8509827E-1,1.0242206E0,8.92022E-1,0E0,5.902277E-1,3.990999E-1,6.3908017E-1,0E0,5.142057E-2,0E0,0E0,0E0,0E0,0E0,0E0,0E0,0E0],"parents":[2147483647,0,0,2,2,3,3,5,5,6,6,7,7,8,8,10,10,11,11,12,12,14,14],"right_children":[2,-1,4,6,-1,8,10,12,14,-1,16,18,20,-1,22,-1,-1,-1,-1,-1,-1,-1,-1],"split_conditions":[-1.1211427E9,-2.1817143E-1,1.912544E10,7.8993316E9,-1.996448E-1,7.134697E8,2.6449813E8,8.5207376E10,-2.0872321E10,2.4095125E-1,-5.7348055E10,4.1379382E8,4.1391007E9,-5.3729948E-2,3.3243875E8,1.3976143E-1,-8.369818E-2,-4.2911157E-2,1.433966E-1,-2.1923718E-1,2.4747713E-2,2.2281606E-1,5.3128734E-2],"split_indices":[71,0,30,18,0,25,39,3,18,0,1,55,34,0,47,0,0,0,0,0,0,0,0],"split_type":[0,0,0,0,0,0,0,0,0,0,0,0,0,0,0,0,0,0,0,0,0,0,0],"sum_hessian":[1.8287685E1,1.721276E0,1.656641E1,1.5375625E1,1.1907856E0,1.0646003E1,4.729622E0,6.2996206E0,4.346382E0,2.4101734E0,2.3194482E0,2.4582086E0,3.8414123E0,1.4717987E0,2.8745832E0,1.0666597E0,1.2527885E0,1.3430468E0,1.1151618E0,2.7962067E0,1.0452055E0,1.8641176E0,1.0104657E0],"tree_param":{"num_deleted":"0","num_feature":"85","num_nodes":"23","size_leaf_vector":"1"}},{"base_weights":[1.8553702E-3,-2.2134236E-1,3.087253E-1,-3.6475736E-1,1.07853524E-1,-9.107904E-2,4.8650494E-1,-2.3487706E-2,-5.885677E-1,-1.7904414E-2,6.180815E-1,-1.1356673E-1,2.55816E-1,-2.415448E-1,-1.1127166E-2,2.7115554E-2,7.1553373E-1,1.8749213E-1,-7.459483E-2,2.4425013E-1,5.593889E-2],"categories":[],"categories_nodes":[],"categories_segments":[],"categories_sizes":[],"default_left":[0,0,0,0,0,0,0,0,0,0,0,0,0,0,0,0,0,0,0,0,0],"id":15,"left_children":[1,3,5,7,-1,-1,9,11,13,-1,15,-1,17,-1,-1,-1,19,-1,-1,-1,-1],"loss_changes":[1.3316604E0,1.0691732E0,1.0386155E0,7.1385884E-1,0E0,0E0,5.2031887E-1,5.74351E-1,6.524004E-1,0E0,2.186296E-1,0E0,7.684156E-1,0E0,0E0,0E0,8.331227E-2,0E0,0E0,0E0,0E0],"parents":[2147483647,0,0,1,1,2,2,3,3,6,6,7,7,8,8,10,10,12,12,16,16],"right_children":[2,4,6,8,-1,-1,10,12,14,-1,16,-1,18,-1,-1,-1,20,-1,-1,-1,-1],"split_conditions":[2.744036E9,9.8229466E8,-2.4999612E10,-1.2139155E6,1.07853524E-1,-9.107904E-2,-7.764933E8,-1.0688563E9,-4.569672E10,-1.7904414E-2,-2.399656E8,-1.1356673E-1,2.0376273E9,-2.415448E-1,-1.1127166E-2,2.7115554E-2,-5.1898016E10,1.8749213E-1,-7.459483E-2,2.4425013E-1,5.593889E-2],"split_indices":[19,62,11,84,0,0,60,51,1,0,50,0,20,0,0,0,1,0,0,0,0],"split_type":[0,0,0,0,0,0,0,0,0,0,0,0,0,0,0,0,0,0,0,0,0],"sum_hessian":[1.7444695E1,1.0260538E1,7.1841555E0,8.52718E0,1.7333587E0,1.4572546E0,5.7269006E0,3.8149805E0,4.712199E0,1.2178612E0,4.50904E0,1.5232174E0,2.2917628E0,3.053149E0,1.65905E0,1.003367E0,3.5056727E0,1.1854159E0,1.1063471E0,2.5006251E0,1.0050474E0],"tree_param":{"num_deleted":"0","num_feature":"85","num_nodes":"21","size_leaf_vector":"1"}},{"base_weights":[-3.0455764E-2,-3.029942E-1,3.1031698E-1,1.4497805E-1,-5.6038284E-1,5.2984536E-1,-6.597742E-2,-2.8854302E-1,1.9415815E-1,-1.5896004E-4,-2.3879503E-1,2.2905478E-1,1.4532213E-1,-1.1140205E-1,-1.8552562E-2,-1.07160784E-1,1.5277833E-1],"categories":[],"categories_nodes":[],"categories_segments":[],"categories_sizes":[],"default_left":[0,0,0,0,0,0,0,0,0,0,0,0,0,0,0,0,0],"id":16,"left_children":[1,3,5,7,9,11,-1,13,-1,-1,-1,-1,15,-1,-1,-1,-1],"loss_changes":[1.6262304E0,1.1965201E0,1.0273999E0,1.1281736E0,8.369633E-1,4.1263986E-1,0E0,3.3578396E-2,0E0,0E0,0E0,0E0,8.106322E-1,0E0,0E0,0E0,0E0],"parents":[2147483647,0,0,1,1,2,2,3,3,4,4,5,5,7,7,12,12],"right_children":[2,4,6,8,10,12,-1,14,-1,-1,-1,-1,16,-1,-1,-1,-1],"split_conditions":[1.01073344E9,-6.223731E8,4.289731E8,-1.7735226E9,-3.6120438E9,-9.180857E7,-6.597742E-2,-1.3649792E8,1.9415815E-1,-1.5896004E-4,-2.3879503E-1,2.2905478E-1,9.378177E10,-1.1140205E-1,-1.8552562E-2,-1.07160784E-1,1.5277833E-1],"split_indices":[29,33,67,37,6,70,0,61,0,0,0,0,3,0,0,0,0],"split_type":[0,0,0,0,0,0,0,0,0,0,0,0,0,0,0,0,0],"sum_hessian":[1.5497745E1,8.672576E0,6.8251686E0,3.3240192E0,5.348556E0,4.8273273E0,1.9978415E0,2.012369E0,1.3116504E0,1.8810062E0,3.46755E0,2.3895855E0,2.4377418E0,1.0066849E0,1.0056839E0,1.0316943E0,1.4060475E0],"tree_param":{"num_deleted":"0","num_feature":"85","num_nodes":"17","size_leaf_vector":"1"}},{"base_weights":[-7.5668186E-2,-4.1665387E-1,1.0821381E-1,-6.404909E-1,3.5545252E-2,4.5632327E-1,-8.377345E-2,-3.6599457E-2,-2.2990075E-1,-6.618919E-2,8.239992E-2,-1.0320713E-2,1.840943E-1,1.1855678E-1,-2.8641492E-1,9.38486E-2,-4.5805573E-1,-9.013115E-2,-2.1714005E-1,-1.16030954E-1,8.499329E-2],"categories":[],"categories_nodes":[],"categories_segments":[],"categories_sizes":[],"default_left":[0,0,0,0,0,0,0,0,0,0,0,0,0,0,0,0,0,0,0,0,0],"id":17,"left_children":[1,3,5,7,9,11,13,-1,-1,-1,-1,-1,-1,-1,15,-1,17,19,-1,-1,-1],"loss_changes":[1.1208959E0,6.5206504E-1,8.3624303E-1,1.812911E-1,2.4473551E-1,3.6077243E-1,9.4215125E-1,0E0,0E0,0E0,0E0,0E0,0E0,0E0,8.202307E-1,0E0,4.74661E-1,4.9264213E-1,0E0,0E0,0E0],"parents":[2147483647,0,0,1,1,2,2,3,3,4,4,5,5,6,6,14,14,16,16,17,17],"right_children":[2,4,6,8,10,12,14,-1,-1,-1,-1,-1,-1,-1,16,-1,18,20,-1,-1,-1],"split_conditions":[-9.919675E8,1.483572E9,-3.3686336E7,-2.3765458E9,-2.9501553E9,-4.5131013E9,-3.081572E9,-3.6599457E-2,-2.2990075E-1,-6.618919E-2,8.239992E-2,-1.0320713E-2,1.840943E-1,1.1855678E-1,-1.9928086E8,9.38486E-2,-6.037206E6,3.3775062E8,-2.1714005E-1,-1.16030954E-1,8.499329E-2],"split_indices":[51,17,55,24,51,33,43,0,0,0,0,0,0,0,66,0,77,36,0,0,0],"split_type":[0,0,0,0,0,0,0,0,0,0,0,0,0,0,0,0,0,0,0,0,0],"sum_hessian":[1.6157717E1,5.217203E0,1.0940514E1,3.2112527E0,2.0059505E0,3.3995824E0,7.540931E0,1.0118341E0,2.1994185E0,1.0057716E0,1.0001789E0,1.0149823E0,2.3846002E0,1.9594327E0,5.5814986E0,1.0595949E0,4.5219035E0,2.4579806E0,2.0639231E0,1.3499651E0,1.1080154E0],"tree_param":{"num_deleted":"0","num_feature":"85","num_nodes":"21","size_leaf_vector":"1"}},{"base_weights":[-1.2754063E-1,-3.4012908E-1,9.9694386E-2,-5.124864E-1,5.4580066E-2,-1.5500996E-1,5.1155365E-1,-5.2551344E-2,-7.113842E-1,-5.050306E-1,3.5052302E-1,8.604727E-3,2.0709437E-1,-1.1773003E-1,9.0169095E-2,-6.0442246E-2,-2.3842503E-1,-2.7583199E-2,-1.9990055E-1,-3.0130965E-3,1.6058989E-1],"categories":[],"categories_nodes":[],"categories_segments":[],"categories_sizes":[],"default_left":[0,0,0,0,0,0,0,0,0,0,0,0,0,0,0,0,0,0,0,0,0],"id":18,"left_children":[1,3,5,7,-1,9,11,13,15,17,19,-1,-1,-1,-1,-1,-1,-1,-1,-1,-1],"loss_changes":[8.3803236E-1,8.874848E-1,1.004443E0,5.936402E-1,0E0,1.2770422E0,2.9116046E-1,4.9747205E-1,4.1190147E-2,2.1079755E-1,2.1415201E-1,0E0,0E0,0E0,0E0,0E0,0E0,0E0,0E0,0E0,0E0],"parents":[2147483647,0,0,1,1,2,2,3,3,5,5,6,6,7,7,8,8,9,9,10,10],"right_children":[2,4,6,8,-1,10,12,14,16,18,20,-1,-1,-1,-1,-1,-1,-1,-1,-1,-1],"split_conditions":[2.101226E10,2.6839382E10,8.7377E8,-2.1366794E8,5.4580066E-2,-2.1512115E8,-4.8882832E8,-3.2986988E9,-2.945561E9,-2.0364155E11,-1.50046E8,8.604727E-3,2.0709437E-1,-1.1773003E-1,9.0169095E-2,-6.0442246E-2,-2.3842503E-1,-2.7583199E-2,-1.9990055E-1,-3.0130965E-3,1.6058989E-1],"split_indices":[12,15,25,58,0,51,60,37,22,5,70,0,0,0,0,0,0,0,0,0,0],"split_type":[0,0,0,0,0,0,0,0,0,0,0,0,0,0,0,0,0,0,0,0,0],"sum_hessian":[1.5645919E1,7.826792E0,7.819127E0,5.8979464E0,1.9288452E0,5.2166505E0,2.6024768E0,2.1622138E0,3.7357326E0,3.0830228E0,2.1336274E0,1.0166743E0,1.5858024E0,1.045014E0,1.1171998E0,1.0050515E0,2.730681E0,1.3066956E0,1.7763273E0,1.0433378E0,1.0902896E0],"tree_param":{"num_deleted":"0","num_feature":"85","num_nodes":"21","size_leaf_vector":"1"}},{"base_weights":[3.399386E-2,1.4946344E-1,-1.446294E-1,-2.1915314E-1,3.5694277E-1,-1.7367812E-1,8.748613E-2,4.7527313E-1,-3.8977586E-2,6.537651E-1,7.657482E-4,4.804141E-2,2.2858308E-1],"categories":[],"categories_nodes":[],"categories_segments":[],"categories_sizes":[],"default_left":[0,0,0,0,0,0,0,0,0,0,0,0,0],"id":19,"left_children":[1,3,-1,5,7,-1,-1,9,-1,11,-1,-1,-1],"loss_changes":[9.5771754E-1,1.0654316E0,0E0,1.1369572E0,5.5948925E-1,0E0,0E0,6.0289586E-1,0E0,1.5551639E-1,0E0,0E0,0E0],"parents":[2147483647,0,0,1,1,3,3,4,4,7,7,9,9],"right_children":[2,4,-1,6,8,-1,-1,10,-1,12,-1,-1,-1],"split_conditions":[1.0348369E9,-4.2380716E9,-1.446294E-1,6.3686086E8,1.3375178E9,-1.7367812E-1,8.748613E-2,3.1626634E9,-3.8977586E-2,-3.4201883E10,7.657482E-4,4.804141E-2,2.2858308E-1],"split_indices":[67,28,0,50,58,0,0,38,0,6,0,0,0],"split_type":[0,0,0,0,0,0,0,0,0,0,0,0,0],"sum_hessian":[1.3861859E1,1.190798E1,1.9538791E0,4.268362E0,7.639618E0,2.4260745E0,1.8422877E0,6.1650543E0,1.4745636E0,4.1972528E0,1.9678017E0,1.2003359E0,2.9969168E0],"tree_param":{"num_deleted":"0","num_feature":"85","num_nodes":"13","size_leaf_vector":"1"}},{"base_weights":[-9.54182E-3,1.1172998E-1,-4.7250134E-1,4.97883E-1,-9.979473E-2,-1.7479408E-1,-4.0809806E-2,1.9859429E-1,8.167573E-3,2.783336E-1,-3.6838987E-1,1.5022814E-1,-2.8752267E-2,-5.465545E-1,5.634982E-2,-2.0317808E-1,-5.443859E-2],"categories":[],"categories_nodes":[],"categories_segments":[],"categories_sizes":[],"default_left":[0,0,0,0,0,0,0,0,0,0,0,0,0,0,0,0,0],"id":20,"left_children":[1,3,5,7,9,-1,-1,-1,-1,11,13,-1,-1,15,-1,-1,-1],"loss_changes":[8.5616976E-1,1.041926E0,3.7907183E-2,3.2691944E-1,9.8426455E-1,0E0,0E0,0E0,0E0,3.9548233E-1,6.483347E-1,0E0,0E0,8.832228E-2,0E0,0E0,0E0],"parents":[2147483647,0,0,1,1,2,2,3,3,4,4,9,9,10,10,13,13],"right_children":[2,4,6,8,10,-1,-1,-1,-1,12,14,-1,-1,16,-1,-1,-1],"split_conditions":[1.613397E11,-1.767715E8,-1.1624065E9,2.1259038E8,-6.5061324E7,-1.7479408E-1,-4.0809806E-2,1.9859429E-1,8.167573E-3,6.709574E9,4.7727186E9,1.5022814E-1,-2.8752267E-2,-4.6042624E9,5.634982E-2,-2.0317808E-1,-5.443859E-2],"split_indices":[2,72,29,57,58,0,0,0,0,16,38,0,0,14,0,0,0],"split_type":[0,0,0,0,0,0,0,0,0,0,0,0,0,0,0,0,0],"sum_hessian":[1.3309241E1,1.11477585E1,2.161483E0,3.4661958E0,7.6815624E0,1.0772004E0,1.0842826E0,2.2686977E0,1.197498E0,3.175224E0,4.5063386E0,1.7792481E0,1.3959758E0,3.4262514E0,1.0800871E0,1.8933736E0,1.5328779E0],"tree_param":{"num_deleted":"0","num_feature":"85","num_nodes":"17","size_leaf_vector":"1"}},{"base_weights":[-7.5110875E-2,-2.5557396E-1,2.368607E-1,9.3455195E-2,-3.6780933E-1,-1.2248206E-1,1.8686959E-1,-5.1974416E-1,4.6894375E-2,8.482723E-2,-1.23477735E-1,-2.1598183E-1,-1.5066507E-1,-1.0050945E-1,1.2507713E-1,5.7525016E-2,-1.1520797E-1],"categories":[],"categories_nodes":[],"categories_segments":[],"categories_sizes":[],"default_left":[0,0,0,0,0,0,0,0,0,0,0,0,0,0,0,0,0],"id":21,"left_children":[1,3,5,-1,7,9,-1,11,13,-1,-1,-1,15,-1,-1,-1,-1],"loss_changes":[8.547459E-1,7.1402174E-1,8.654411E-1,0E0,5.486423E-1,5.594686E-1,0E0,3.4759462E-1,5.8461165E-1,0E0,0E0,0E0,3.481391E-1,0E0,0E0,0E0,0E0],"parents":[2147483647,0,0,1,1,2,2,4,4,5,5,7,7,8,8,12,12],"right_children":[2,4,6,-1,8,10,-1,12,14,-1,-1,-1,16,-1,-1,-1,-1],"split_conditions":[1.6202498E7,-8.523539E8,8.7377E8,9.3455195E-2,6.333901E9,6.8525656E7,1.8686959E-1,-5.4289863E10,2.101226E10,8.482723E-2,-1.23477735E-1,-2.1598183E-1,-6.416521E7,-1.0050945E-1,1.2507713E-1,5.7525016E-2,-1.1520797E-1],"split_indices":[81,69,25,0,19,77,0,1,12,0,0,0,58,0,0,0,0],"split_type":[0,0,0,0,0,0,0,0,0,0,0,0,0,0,0,0,0],"sum_hessian":[1.310692E1,8.41814E0,4.68878E0,1.0974559E0,7.3206844E0,2.7819378E0,1.906842E0,5.172388E0,2.148296E0,1.1674806E0,1.6144572E0,2.7370987E0,2.4352896E0,1.1036967E0,1.0445994E0,1.0592897E0,1.3759999E0],"tree_param":{"num_deleted":"0","num_feature":"85","num_nodes":"17","size_leaf_vector":"1"}},{"base_weights":[1.1248969E-2,-2.592369E-1,1.7864983E-1,-4.5327088E-1,3.4404945E-2,-2.6395318E-1,3.8265607E-1,-7.1531506E-3,-1.8194173E-1,-1.371345E-1,2.4931014E-2,5.4025215E-1,-4.7578223E-2,1.8950224E-1,3.7915055E-2],"categories":[],"categories_nodes":[],"categories_segments":[],"categories_sizes":[],"default_left":[0,0,0,0,0,0,0,0,0,0,0,0,0,0,0],"id":22,"left_children":[1,3,5,7,-1,9,11,-1,-1,-1,-1,13,-1,-1,-1],"loss_changes":[6.393661E-1,4.448651E-1,8.8497895E-1,2.3336756E-1,0E0,2.613005E-1,6.274457E-1,0E0,0E0,0E0,0E0,1.1487484E-1,0E0,0E0,0E0],"parents":[2147483647,0,0,1,1,2,2,3,3,5,5,6,6,11,11],"right_children":[2,4,6,8,-1,10,12,-1,-1,-1,-1,14,-1,-1,-1],"split_conditions":[-5.856086E9,-4.088423E7,-9.362265E9,-4.148726E8,3.4404945E-2,-4.4752184E9,1.9852428E9,-7.1531506E-3,-1.8194173E-1,-1.371345E-1,2.4931014E-2,5.758052E8,-4.7578223E-2,1.8950224E-1,3.7915055E-2],"split_indices":[21,48,19,61,0,23,48,0,0,0,0,63,0,0,0],"split_type":[0,0,0,0,0,0,0,0,0,0,0,0,0,0,0],"sum_hessian":[1.2097596E1,4.4150963E0,7.6825004E0,2.7670233E0,1.6480728E0,2.3311312E0,5.351369E0,1.0314591E0,1.7355642E0,1.2938764E0,1.0372548E0,4.146015E0,1.2053536E0,2.9648292E0,1.1811861E0],"tree_param":{"num_deleted":"0","num_feature":"85","num_nodes":"15","size_leaf_vector":"1"}},{"base_weights":[7.706107E-2,-1.0192921E-1,3.2940423E-1,1.14542656E-1,-2.367907E-1,5.111529E-1,-5.290945E-2,6.609484E-2,-3.5947388E-1,1.9341251E-1,3.9935865E-2,3.3076406E-2,-5.0096965E-1,-1.9919471E-1,-2.7401868E-2],"categories":[],"categories_nodes":[],"categories_segments":[],"categories_sizes":[],"default_left":[0,0,0,0,0,0,0,0,0,0,0,0,0,0,0],"id":23,"left_children":[1,3,5,-1,7,9,-1,-1,11,-1,-1,-1,13,-1,-1],"loss_changes":[5.747195E-1,5.974952E-1,5.68888E-1,0E0,4.5467958E-1,1.2056303E-1,0E0,0E0,4.3134195E-1,0E0,0E0,0E0,2.4178708E-1,0E0,0E0],"parents":[2147483647,0,0,1,1,2,2,4,4,5,5,8,8,12,12],"right_children":[2,4,6,-1,8,10,-1,-1,12,-1,-1,-1,14,-1,-1],"split_conditions":[3.5666888E6,-2.0847846E9,7.106618E7,1.14542656E-1,-1.2034022E8,4.3064848E8,-5.290945E-2,6.609484E-2,-1.2401085E8,1.9341251E-1,3.9935865E-2,3.3076406E-2,3.7675375E6,-1.9919471E-1,-2.7401868E-2],"split_indices":[83,52,79,0,77,67,0,0,75,0,0,0,79,0,0],"split_type":[0,0,0,0,0,0,0,0,0,0,0,0,0,0,0],"sum_hessian":[1.0980957E1,6.772912E0,4.2080455E0,1.0773654E0,5.6955466E0,3.087797E0,1.1202484E0,1.0367804E0,4.6587663E0,1.7604284E0,1.3273685E0,1.1295964E0,3.52917E0,2.080358E0,1.4488122E0],"tree_param":{"num_deleted":"0","num_feature":"85","num_nodes":"15","size_leaf_vector":"1"}},{"base_weights":[3.1209623E-3,-2.683772E-1,2.23894E-1,1.1212696E-1,-5.222157E-1,-1.2148883E-1,4.896915E-1,-6.631196E-2,1.13401085E-1,-1.9210058E-1,-3.265856E-2,6.722693E-2,-1.2914658E-1,1.782926E-1,2.9611735E-2],"categories":[],"categories_nodes":[],"categories_segments":[],"categories_sizes":[],"default_left":[0,0,0,0,0,0,0,0,0,0,0,0,0,0,0],"id":24,"left_children":[1,3,5,7,9,11,13,-1,-1,-1,-1,-1,-1,-1,-1],"loss_changes":[7.979511E-1,6.3572216E-1,7.328118E-1,3.6829433E-1,1.1393297E-1,5.226346E-1,1.19006276E-1,0E0,0E0,0E0,0E0,0E0,0E0,0E0,0E0],"parents":[2147483647,0,0,1,1,2,2,3,3,4,4,5,5,6,6],"right_children":[2,4,6,8,10,12,14,-1,-1,-1,-1,-1,-1,-1,-1],"split_conditions":[-5.326716E7,-6.648065E7,5.3830886E8,-7.999447E8,6.3686086E8,-2.4570604E9,3.472102E10,-6.631196E-2,1.13401085E-1,-1.9210058E-1,-3.265856E-2,6.722693E-2,-1.2914658E-1,1.782926E-1,2.9611735E-2],"split_indices":[71,58,29,54,50,20,12,0,0,0,0,0,0,0,0],"split_type":[0,0,0,0,0,0,0,0,0,0,0,0,0,0,0],"sum_hessian":[1.1310136E1,4.975649E0,6.3344865E0,2.2144544E0,2.7611947E0,2.990933E0,3.3435535E0,1.0577003E0,1.156754E0,1.7204418E0,1.0407529E0,1.5416147E0,1.4493184E0,2.2275066E0,1.1160469E0],"tree_param":{"num_deleted":"0","num_feature":"85","num_nodes":"15","size_leaf_vector":"1"}},{"base_weights":[-1.2155868E-4,-3.946666E-1,1.683832E-1,3.974434E-3,-1.6738194E-1,-6.120036E-2,4.9546862E-1,-2.7648264E-1,1.1053135E-1,1.288851E-2,1.9451122E-1,-4.635412E-1,5.7954162E-2,-1.8664867E-1,-1.936527E-2],"categories":[],"categories_nodes":[],"categories_segments":[],"categories_sizes":[],"default_left":[0,0,0,0,0,0,0,0,0,0,0,0,0,0,0],"id":25,"left_children":[1,3,5,-1,-1,7,9,11,-1,-1,-1,13,-1,-1,-1],"loss_changes":[9.0263623E-1,2.7800155E-1,7.447843E-1,0E0,0E0,7.012648E-1,2.5124508E-1,5.190222E-1,0E0,0E0,0E0,1.9971514E-1,0E0,0E0,0E0],"parents":[2147483647,0,0,1,1,2,2,5,5,6,6,7,7,11,11],"right_children":[2,4,6,-1,-1,8,10,12,-1,-1,-1,14,-1,-1,-1],"split_conditions":[-1.0930854E9,-3.7291043E8,3.8506938E8,3.974434E-3,-1.6738194E-1,2.1416518E8,-4.0451715E9,5.7402977E9,1.1053135E-1,1.288851E-2,1.9451122E-1,-2.6467942E7,5.7954162E-2,-1.8664867E-1,-1.936527E-2],"split_indices":[61,66,52,0,0,60,28,19,0,0,0,74,0,0,0],"split_type":[0,0,0,0,0,0,0,0,0,0,0,0,0,0,0],"sum_hessian":[1.1577419E1,3.0631187E0,8.5143E0,1.1382421E0,1.9248766E0,5.480436E0,3.0338647E0,3.8884795E0,1.5919563E0,1.0897559E0,1.944109E0,2.7902193E0,1.0982603E0,1.5962707E0,1.1939485E0],"tree_param":{"num_deleted":"0","num_feature":"85","num_nodes":"15","size_leaf_vector":"1"}},{"base_weights":[-9.103652E-2,1.3804172E-1,-2.6108602E-1,-1.3937181E-1,3.850283E-1,1.7951487E-2,-4.7277522E-1,5.0777175E-2,-1.0529197E-1,1.6041565E-1,1.8801253E-2,9.9149145E-2,-1.9705394E-1,-6.762798E-3,-1.843031E-1,1.996758E-2,-1.0939679E-1],"categories":[],"categories_nodes":[],"categories_segments":[],"categories_sizes":[],"default_left":[0,0,0,0,0,0,0,0,0,0,0,0,0,0,0,0,0],"id":26,"left_children":[1,3,5,7,9,11,13,-1,-1,-1,-1,-1,15,-1,-1,-1,-1],"loss_changes":[5.1613873E-1,4.5826057E-1,4.4675082E-1,2.8898507E-1,1.3005042E-1,3.4494466E-1,2.5738865E-1,0E0,0E0,0E0,0E0,0E0,1.6094534E-1,0E0,0E0,0E0,0E0],"parents":[2147483647,0,0,1,1,2,2,3,3,4,4,5,5,6,6,12,12],"right_children":[2,4,6,8,10,12,14,-1,-1,-1,-1,-1,16,-1,-1,-1,-1],"split_conditions":[-5.1861894E8,-3.7836493E9,-3.7758353E5,-1.4924479E9,-4.0377485E8,-4.6007888E8,-1.3790761E12,5.0777175E-2,-1.0529197E-1,1.6041565E-1,1.8801253E-2,9.9149145E-2,-1.908875E7,-6.762798E-3,-1.843031E-1,1.996758E-2,-1.0939679E-1],"split_indices":[33,33,84,30,31,63,0,0,0,0,0,0,78,0,0,0,0],"split_type":[0,0,0,0,0,0,0,0,0,0,0,0,0,0,0,0,0],"sum_hessian":[1.1324539E1,4.9050455E0,6.419493E0,2.5154366E0,2.389609E0,3.1640325E0,3.255461E0,1.1045376E0,1.4108989E0,1.1819711E0,1.207638E0,1.0705929E0,2.0934396E0,1.056067E0,2.199394E0,1.0479891E0,1.0454504E0],"tree_param":{"num_deleted":"0","num_feature":"85","num_nodes":"17","size_leaf_vector":"1"}},{"base_weights":[-2.5078252E-2,2.4594416E-1,-1.9824225E-1,-4.6250347E-2,4.8779857E-1,2.2151364E-1,-3.8445684E-1,2.3915721E-2,1.884994E-1,-4.1712206E-2,1.4283875E-1,2.8484086E-2,-5.1674145E-1,-4.2261574E-2,-1.8437137E-1],"categories":[],"categories_nodes":[],"categories_segments":[],"categories_sizes":[],"default_left":[0,0,0,0,0,0,0,0,0,0,0,0,0,0,0],"id":27,"left_children":[1,3,5,-1,7,9,11,-1,-1,-1,-1,-1,13,-1,-1],"loss_changes":[6.145381E-1,5.731843E-1,7.034004E-1,0E0,1.476193E-1,3.4757787E-1,4.1970265E-1,0E0,0E0,0E0,0E0,0E0,8.756232E-2,0E0,0E0],"parents":[2147483647,0,0,1,1,2,2,4,4,5,5,6,6,12,12],"right_children":[2,4,6,-1,8,10,12,-1,-1,-1,-1,-1,14,-1,-1],"split_conditions":[-1.2795024E7,-3.4689194E8,-1.0060047E10,-4.6250347E-2,-6.922172E7,4.8152182E8,8.428126E10,2.3915721E-2,1.884994E-1,-4.1712206E-2,1.4283875E-1,2.8484086E-2,-2.811376E7,-4.2261574E-2,-1.8437137E-1],"split_indices":[82,69,14,0,70,56,3,0,0,0,0,0,67,0,0],"split_type":[0,0,0,0,0,0,0,0,0,0,0,0,0,0,0],"sum_hessian":[1.1055522E1,4.146093E0,6.9094286E0,1.6985896E0,2.4475033E0,2.0650136E0,4.8444147E0,1.0284244E0,1.4190791E0,1.0425726E0,1.0224409E0,1.1087006E0,3.7357142E0,1.2754202E0,2.4602942E0],"tree_param":{"num_deleted":"0","num_feature":"85","num_nodes":"15","size_leaf_vector":"1"}},{"base_weights":[1.6454703E-3,-2.8006306E-1,1.5511045E-1,2.775225E-2,-1.457585E-1,4.4925156E-1,-1.3027146E-1,2.3659997E-2,1.8561445E-1,-1.3107604E-1,1.9355205E-1,1.11799814E-1,-2.3983387E-2],"categories":[],"categories_nodes":[],"categories_segments":[],"categories_sizes":[],"default_left":[0,0,0,0,0,0,0,0,0,0,0,0,0],"id":28,"left_children":[1,3,5,-1,-1,7,9,-1,-1,-1,11,-1,-1],"loss_changes":[5.314027E-1,3.7746808E-1,7.258804E-1,0E0,0E0,2.1104431E-1,5.622362E-1,0E0,0E0,0E0,1.7835414E-1,0E0,0E0],"parents":[2147483647,0,0,1,1,2,2,5,5,6,6,10,10],"right_children":[2,4,6,-1,-1,8,10,-1,-1,-1,12,-1,-1],"split_conditions":[-6.476732E8,-7.238575E10,-9.00508E7,2.775225E-2,-1.457585E-1,-1.5038446E8,-2.928722E8,2.3659997E-2,1.8561445E-1,-1.3107604E-1,-2.2859368E8,1.11799814E-1,-2.3983387E-2],"split_indices":[60,1,72,0,0,68,69,0,0,0,42,0,0],"split_type":[0,0,0,0,0,0,0,0,0,0,0,0,0],"sum_hessian":[1.0286953E1,3.3368049E0,6.9501486E0,1.383201E0,1.9536037E0,3.1397839E0,3.8103645E0,1.4456064E0,1.6941775E0,1.777698E0,2.0326667E0,1.0091637E0,1.023503E0],"tree_param":{"num_deleted":"0","num_feature":"85","num_nodes":"13","size_leaf_vector":"1"}},{"base_weights":[-1.0113262E-1,-3.9081383E-1,1.4354089E-2,-1.5834524E-1,-2.253346E-2,1.1862599E-1,-1.278598E-1,2.737947E-1,-3.48672E-1,1.4648539E-1,-2.55269E-2,-5.423657E-1,-2.5239834E-3,-4.306476E-2,-1.9505276E-1],"categories":[],"categories_nodes":[],"categories_segments":[],"categories_sizes":[],"default_left":[0,0,0,0,0,0,0,0,0,0,0,0,0,0,0],"id":29,"left_children":[1,3,5,-1,-1,-1,7,9,11,-1,-1,13,-1,-1,-1],"loss_changes":[4.042269E-1,1.08783305E-1,5.645005E-1,0E0,0E0,0E0,7.749951E-1,2.9388553E-1,3.5025853E-1,0E0,0E0,5.3501487E-2,0E0,0E0,0E0],"parents":[2147483647,0,0,1,1,2,2,6,6,7,7,8,8,11,11],"right_children":[2,4,6,-1,-1,-1,8,10,12,-1,-1,14,-1,-1,-1],"split_conditions":[-1.04057E9,-3.2500134E8,-1.8716794E8,-1.5834524E-1,-2.253346E-2,1.1862599E-1,-2.2246832E8,6.698467E7,4.7837357E8,1.4648539E-1,-2.55269E-2,-2.1234981E11,-2.5239834E-3,-4.306476E-2,-1.9505276E-1],"split_indices":[61,54,61,0,0,0,57,77,50,0,0,5,0,0,0],"split_type":[0,0,0,0,0,0,0,0,0,0,0,0,0,0,0],"sum_hessian":[1.0915263E1,2.4316847E0,8.483578E0,1.2272279E0,1.2044568E0,1.8217341E0,6.661844E0,2.2780879E0,4.383756E0,1.2002107E0,1.0778772E0,2.4150174E0,1.9687387E0,1.010059E0,1.4049585E0],"tree_param":{"num_deleted":"0","num_feature":"85","num_nodes":"15","size_leaf_vector":"1"}},{"base_weights":[-5.891279E-3,3.6033866E-1,-1.3776882E-1,1.532842E-1,9.551974E-3,1.8867566E-1,-4.095439E-1,1.3077472E-1,-4.1851077E-2,-5.11099E-1,-6.9360198E-3,-1.8276435E-1,-3.5430614E-2],"categories":[],"categories_nodes":[],"categories_segments":[],"categories_sizes":[],"default_left":[0,0,0,0,0,0,0,0,0,0,0,0,0],"id":30,"left_children":[1,3,5,-1,-1,7,9,-1,-1,11,-1,-1,-1],"loss_changes":[5.502614E-1,1.331883E-1,8.175839E-1,0E0,0E0,4.2395222E-1,1.7925489E-1,0E0,0E0,7.489246E-2,0E0,0E0,0E0],"parents":[2147483647,0,0,1,1,2,2,5,5,6,6,9,9],"right_children":[2,4,6,-1,-1,8,10,-1,-1,12,-1,-1,-1],"split_conditions":[-3.6854019E9,3.805835E9,-2.641197E9,1.532842E-1,9.551974E-3,9.649171E6,8.4606674E9,1.3077472E-1,-4.1851077E-2,-5.112086E7,-6.9360198E-3,-1.8276435E-1,-3.5430614E-2],"split_indices":[43,6,24,0,0,73,17,0,0,60,0,0,0],"split_type":[0,0,0,0,0,0,0,0,0,0,0,0,0],"sum_hessian":[9.365297E0,2.0208714E0,7.3444257E0,1.0047959E0,1.0160755E0,3.475532E0,3.8688934E0,1.7949711E0,1.680561E0,2.8082309E0,1.0606626E0,1.8069357E0,1.0012952E0],"tree_param":{"num_deleted":"0","num_feature":"85","num_nodes":"13","size_leaf_vector":"1"}},{"base_weights":[4.4147447E-2,1.4411424E-1,-1.0864611E-1,-1.2518427E-1,3.2360905E-1,5.3235404E-2,-1.216354E-1,5.216455E-1,-4.7026034E-2,1.9336826E-1,4.3624498E-2],"categories":[],"categories_nodes":[],"categories_segments":[],"categories_sizes":[],"default_left":[0,0,0,0,0,0,0,0,0,0,0],"id":31,"left_children":[1,3,-1,5,7,-1,-1,9,-1,-1,-1],"loss_changes":[4.5623156E-1,4.609881E-1,0E0,4.2819756E-1,6.048493E-1,0E0,0E0,9.700847E-2,0E0,0E0,0E0],"parents":[2147483647,0,0,1,1,3,3,4,4,7,7],"right_children":[2,4,-1,6,8,-1,-1,10,-1,-1,-1],"split_conditions":[1.7972044E10,-1.4226064E8,-1.0864611E-1,4.6457792E8,4.2392435E8,5.3235404E-2,-1.216354E-1,1.1988822E9,-4.7026034E-2,1.9336826E-1,4.3624498E-2],"split_indices":[24,38,0,67,71,0,0,30,0,0,0],"split_type":[0,0,0,0,0,0,0,0,0,0,0],"sum_hessian":[8.947653E0,7.698746E0,1.2489065E0,3.200127E0,4.498619E0,1.7150475E0,1.4850793E0,3.1245408E0,1.3740786E0,1.8175393E0,1.3070014E0],"tree_param":{"num_deleted":"0","num_feature":"85","num_nodes":"11","size_leaf_vector":"1"}},{"base_weights":[7.409044E-3,-1.9479802E-1,2.8195375E-1,-3.1099948E-1,5.0960165E-2,4.5660257E-1,-5.2431222E-2,-4.5527133E-1,1.5464387E-2,1.7524186E-1,2.7605224E-2,-1.6255703E-2,-1.838311E-1],"categories":[],"categories_nodes":[],"categories_segments":[],"categories_sizes":[],"default_left":[0,0,0,0,0,0,0,0,0,0,0,0,0],"id":32,"left_children":[1,3,5,7,-1,9,-1,11,-1,-1,-1,-1,-1],"loss_changes":[6.179972E-1,3.2539314E-1,4.5553923E-1,2.9708594E-1,0E0,1.1756158E-1,0E0,2.0960897E-1,0E0,0E0,0E0,0E0,0E0],"parents":[2147483647,0,0,1,1,2,2,3,3,5,5,7,7],"right_children":[2,4,6,8,-1,10,-1,12,-1,-1,-1,-1,-1],"split_conditions":[3.225217E8,1.5268714E9,1.5702573E8,4.3577016E7,5.0960165E-2,-1.1968397E9,-5.2431222E-2,-1.3310152E9,1.5464387E-2,1.7524186E-1,2.7605224E-2,-1.6255703E-2,-1.838311E-1],"split_indices":[25,31,72,82,0,9,0,22,0,0,0,0,0],"split_type":[0,0,0,0,0,0,0,0,0,0,0,0,0],"sum_hessian":[9.142743E0,5.4322577E0,3.7104855E0,4.2311544E0,1.2011033E0,2.684294E0,1.0261916E0,2.8437557E0,1.3873985E0,1.5425022E0,1.1417917E0,1.1807939E0,1.662962E0],"tree_param":{"num_deleted":"0","num_feature":"85","num_nodes":"13","size_leaf_vector":"1"}},{"base_weights":[-6.197252E-3,-1.2958586E-1,1.21252395E-1,-1.4982843E-1,3.7678514E-2,1.0986579E-1,-1.9171646E-1,5.1509056E-2,-3.6080447E-1,-1.4055397E-1,-2.3579262E-2],"categories":[],"categories_nodes":[],"categories_segments":[],"categories_sizes":[],"default_left":[0,0,0,0,0,0,0,0,0,0,0],"id":33,"left_children":[1,3,-1,-1,5,-1,7,-1,9,-1,-1],"loss_changes":[5.339286E-1,5.1797736E-1,0E0,0E0,5.59033E-1,0E0,3.3697423E-1,0E0,6.582159E-2,0E0,0E0],"parents":[2147483647,0,0,1,1,4,4,6,6,8,8],"right_children":[2,4,-1,-1,6,-1,8,-1,10,-1,-1],"split_conditions":[1.7222413E8,-9.844547E8,1.21252395E-1,-1.4982843E-1,-1.9728477E8,1.0986579E-1,-2.641197E9,5.1509056E-2,-2.7077893E9,-1.4055397E-1,-2.3579262E-2],"split_indices":[76,60,0,0,54,0,24,0,21,0,0],"split_type":[0,0,0,0,0,0,0,0,0,0,0],"sum_hessian":[8.510243E0,7.068996E0,1.4412477E0,1.582977E0,5.486019E0,2.0103407E0,3.4756782E0,1.0987517E0,2.3769267E0,1.2425222E0,1.1344044E0],"tree_param":{"num_deleted":"0","num_feature":"85","num_nodes":"11","size_leaf_vector":"1"}},{"base_weights":[-1.2891549E-1,2.0540097E-1,-2.6889375E-1,-3.7359405E-2,1.3938072E-1,6.3707106E-2,-4.333718E-1,-6.0858555E-2,8.742385E-2,1.3405671E-3,-1.6915017E-1],"categories":[],"categories_nodes":[],"categories_segments":[],"categories_sizes":[],"default_left":[0,0,0,0,0,0,0,0,0,0,0],"id":34,"left_children":[1,3,5,-1,-1,7,9,-1,-1,-1,-1],"loss_changes":[4.780981E-1,3.344069E-1,3.997386E-1,0E0,0E0,2.486611E-1,2.698331E-1,0E0,0E0,0E0,0E0],"parents":[2147483647,0,0,1,1,2,2,5,5,6,6],"right_children":[2,4,6,-1,-1,8,10,-1,-1,-1,-1],"split_conditions":[-1.7108754E8,1.4306176E7,-9.28807E7,-3.7359405E-2,1.3938072E-1,-4.9927232E8,-1.1891005E8,-6.0858555E-2,8.742385E-2,1.3405671E-3,-1.6915017E-1],"split_indices":[75,81,72,0,0,72,77,0,0,0,0],"split_type":[0,0,0,0,0,0,0,0,0,0,0],"sum_hessian":[8.036193E0,2.2337792E0,5.8024144E0,1.2113868E0,1.0223924E0,2.1226828E0,3.6797314E0,1.0281547E0,1.094528E0,1.0664372E0,2.6132941E0],"tree_param":{"num_deleted":"0","num_feature":"85","num_nodes":"11","size_leaf_vector":"1"}},{"base_weights":[-3.0057535E-2,-3.1989753E-1,1.609305E-1,-1.5695013E-1,2.8961042E-2,3.3126038E-1,-7.980034E-2,1.0233367E-2,1.5522474E-1],"categories":[],"categories_nodes":[],"categories_segments":[],"categories_sizes":[],"default_left":[0,0,0,0,0,0,0,0,0],"id":35,"left_children":[1,3,5,-1,-1,7,-1,-1,-1],"loss_changes":[5.56848E-1,3.8579315E-1,5.3668034E-1,0E0,0E0,2.508906E-1,0E0,0E0,0E0],"parents":[2147483647,0,0,1,1,2,2,5,5],"right_children":[2,4,6,-1,-1,8,-1,-1,-1],"split_conditions":[-1.2605539E9,2.0279405E9,1.1052964E9,-1.5695013E-1,2.8961042E-2,-1.2096066E7,-7.980034E-2,1.0233367E-2,1.5522474E-1],"split_indices":[45,19,44,0,0,80,0,0,0],"split_type":[0,0,0,0,0,0,0,0,0],"sum_hessian":[8.129398E0,2.9609513E0,5.1684475E0,1.8174955E0,1.1434557E0,3.854668E0,1.3137795E0,1.940461E0,1.9142069E0],"tree_param":{"num_deleted":"0","num_feature":"85","num_nodes":"9","size_leaf_vector":"1"}},{"base_weights":[-2.671162E-2,-1.9761005E-1,2.2828683E-1,-2.9983997E-1,4.4799067E-2,-2.9267875E-2,1.2422773E-1,-4.2214334E-1,1.0659872E-2,-3.229983E-2,-1.4980105E-1],"categories":[],"categories_nodes":[],"categories_segments":[],"categories_sizes":[],"default_left":[0,0,0,0,0,0,0,0,0,0,0],"id":36,"left_children":[1,3,5,7,-1,-1,-1,9,-1,-1,-1],"loss_changes":[4.4159818E-1,2.5699136E-1,2.8952375E-1,2.1820056E-1,0E0,0E0,0E0,3.624779E-2,0E0,0E0,0E0],"parents":[2147483647,0,0,1,1,2,2,3,3,7,7],"right_children":[2,4,6,8,-1,-1,-1,10,-1,-1,-1],"split_conditions":[7.632871E9,1.3785709E10,-8.02632E8,2.5544253E9,4.4799067E-2,-2.9267875E-2,1.2422773E-1,-1.4301985E7,1.0659872E-2,-3.229983E-2,-1.4980105E-1],"split_indices":[15,28,61,19,0,0,0,80,0,0,0],"split_type":[0,0,0,0,0,0,0,0,0,0,0],"sum_hessian":[8.098142E0,4.9833703E0,3.114771E0,3.9540293E0,1.029341E0,1.3035967E0,1.8111743E0,2.7078176E0,1.246212E0,1.0056543E0,1.7021632E0],"tree_param":{"num_deleted":"0","num_feature":"85","num_nodes":"11","size_leaf_vector":"1"}},{"base_weights":[8.315359E-2,-9.7277634E-2,3.6307982E-1,8.394921E-2,-2.36295E-1,1.7211678E-2,1.4694746E-1,2.3340994E-2,-3.6276704E-1,-1.541543E-1,-7.3491345E-4],"categories":[],"categories_nodes":[],"categories_segments":[],"categories_sizes":[],"default_left":[0,0,0,0,0,0,0,0,0,0,0],"id":37,"left_children":[1,3,5,-1,7,-1,-1,-1,9,-1,-1],"loss_changes":[4.6925393E-1,3.8134444E-1,1.1055881E-1,0E0,2.2428489E-1,0E0,0E0,0E0,1.9990107E-1,0E0,0E0],"parents":[2147483647,0,0,1,1,2,2,4,4,8,8],"right_children":[2,4,6,-1,8,-1,-1,-1,10,-1,-1],"split_conditions":[1.2051766E9,-5.683272E8,-4.176926E7,8.394921E-2,-1.13122824E8,1.7211678E-2,1.4694746E-1,2.3340994E-2,1.6397814E7,-1.541543E-1,-7.3491345E-4],"split_indices":[25,69,78,0,78,0,0,0,69,0,0],"split_type":[0,0,0,0,0,0,0,0,0,0,0],"sum_hessian":[7.5914965E0,5.0128603E0,2.5786364E0,1.0773758E0,3.9354846E0,1.1815091E0,1.3971273E0,1.2402048E0,2.6952798E0,1.5988051E0,1.0964748E0],"tree_param":{"num_deleted":"0","num_feature":"85","num_nodes":"11","size_leaf_vector":"1"}},{"base_weights":[-3.8708795E-2,2.558068E-1,-1.8170913E-1,-3.2300793E-2,1.4318448E-1,5.9465308E-2,-3.022343E-1,-5.9837125E-2,-1.321769E-1,4.1069757E-2,-6.980455E-2],"categories":[],"categories_nodes":[],"categories_segments":[],"categories_sizes":[],"default_left":[0,0,0,0,0,0,0,0,0,0,0],"id":38,"left_children":[1,3,5,-1,-1,-1,7,9,-1,-1,-1],"loss_changes":[4.0989947E-1,3.118626E-1,3.5266298E-1,0E0,0E0,0E0,1.4969453E-1,1.3607019E-1,0E0,0E0,0E0],"parents":[2147483647,0,0,1,1,2,2,6,6,7,7],"right_children":[2,4,6,-1,-1,-1,8,10,-1,-1,-1],"split_conditions":[-4.8436746E8,-1.920918E8,-2.7943315E8,-3.2300793E-2,1.4318448E-1,5.9465308E-2,5.62768E5,4.489366E8,-1.321769E-1,4.1069757E-2,-6.980455E-2],"split_indices":[59,78,73,0,0,0,84,55,0,0,0],"split_type":[0,0,0,0,0,0,0,0,0,0,0],"sum_hessian":[7.628989E0,2.2356706E0,5.3933187E0,1.0410278E0,1.1946428E0,1.1436424E0,4.249676E0,2.064748E0,2.1849282E0,1.0628963E0,1.0018518E0],"tree_param":{"num_deleted":"0","num_feature":"85","num_nodes":"11","size_leaf_vector":"1"}},{"base_weights":[-5.1143117E-2,-2.1396248E-1,1.2023741E-1,2.9843412E-2,-3.3188567E-1,-7.955279E-2,3.1928337E-1,-3.9356877E-3,-1.4400694E-1,1.389243E-1,-4.685647E-3],"categories":[],"categories_nodes":[],"categories_segments":[],"categories_sizes":[],"default_left":[0,0,0,0,0,0,0,0,0,0,0],"id":39,"left_children":[1,3,5,-1,7,-1,9,-1,-1,-1,-1],"loss_changes":[2.5370568E-1,2.0117274E-1,4.39138E-1,0E0,1.6069537E-1,0E0,1.75821E-1,0E0,0E0,0E0,0E0],"parents":[2147483647,0,0,1,1,2,2,4,4,6,6],"right_children":[2,4,6,-1,8,-1,10,-1,-1,-1,-1],"split_conditions":[-2.4515989E8,-4.2109686E9,-7.320204E8,2.9843412E-2,-2.3028656E8,-7.955279E-2,3.9150868E7,-3.9356877E-3,-1.4400694E-1,1.389243E-1,-4.685647E-3],"split_indices":[29,43,52,0,58,0,66,0,0,0,0],"split_type":[0,0,0,0,0,0,0,0,0,0,0],"sum_hessian":[7.1701126E0,3.5494797E0,3.6206331E0,1.0130919E0,2.536388E0,1.119911E0,2.5007222E0,1.1501086E0,1.3862793E0,1.4817607E0,1.0189613E0],"tree_param":{"num_deleted":"0","num_feature":"85","num_nodes":"11","size_leaf_vector":"1"}}]},"name":"gbtree"},"learner_model_param":{"base_score":"6.494601E-1","boost_from_average":"1","num_class":"0","num_feature":"85","num_target":"1"},"objective":{"name":"binary:logistic","reg_loss_param":{"scale_pos_weight":"1"}}},"version":[2,1,1]}